<?xml version="1.0"?>
<opencv_storage>
<cascade>
  <stageType>BOOST</stageType>
  <featureType>HAAR</featureType>
  <height>20</height>
  <width>20</width>
  <stageParams>
    <boostType>GAB</boostType>
    <minHitRate>9.9900001287460327e-01</minHitRate>
    <maxFalseAlarm>5.0000000745058060e-02</maxFalseAlarm>
    <weightTrimRate>9.4999999999999996e-01</weightTrimRate>
    <maxDepth>1</maxDepth>
    <maxWeakCount>100</maxWeakCount></stageParams>
  <featureParams>
    <maxCatCount>0</maxCatCount>
    <featSize>1</featSize>
    <mode>ALL</mode></featureParams>
  <stageNum>3</stageNum>
  <stages>
    <!-- stage 0 -->
    <_>
      <maxWeakCount>5</maxWeakCount>
      <stageThreshold>-2.7661144733428955e-01</stageThreshold>
      <weakClassifiers>
        <_>
          <internalNodes>
            0 -1 10 3.9459629915654659e-03</internalNodes>
          <leafValues>
            -6.1730450391769409e-01 9.2982459068298340e-01</leafValues></_>
        <_>
          <internalNodes>
            0 -1 8 4.3377270922064781e-03</internalNodes>
          <leafValues>
            -5.5188727378845215e-01 8.9987999200820923e-01</leafValues></_>
        <_>
          <internalNodes>
            0 -1 0 4.6573478728532791e-02</internalNodes>
          <leafValues>
            -9.6563458442687988e-01 5.7450753450393677e-01</leafValues></_>
        <_>
          <internalNodes>
            0 -1 15 -2.3183578625321388e-02</internalNodes>
          <leafValues>
            9.8061692714691162e-01 -5.0171709060668945e-01</leafValues></_>
        <_>
          <internalNodes>
            0 -1 4 -2.3245286196470261e-02</internalNodes>
          <leafValues>
            9.8424357175827026e-01 -5.7416927814483643e-01</leafValues></_></weakClassifiers></_>
    <!-- stage 1 -->
    <_>
      <maxWeakCount>8</maxWeakCount>
      <stageThreshold>-4.8936426639556885e-01</stageThreshold>
      <weakClassifiers>
        <_>
          <internalNodes>
            0 -1 5 3.8235217332839966e-02</internalNodes>
          <leafValues>
            5.6050956249237061e-01 -9.4623655080795288e-01</leafValues></_>
        <_>
          <internalNodes>
            0 -1 7 -5.7233157567679882e-03</internalNodes>
          <leafValues>
            9.2347538471221924e-01 -5.9352219104766846e-01</leafValues></_>
        <_>
          <internalNodes>
            0 -1 1 2.5339920073747635e-02</internalNodes>
          <leafValues>
            -9.5360267162322998e-01 4.8583948612213135e-01</leafValues></_>
        <_>
          <internalNodes>
            0 -1 14 3.7481244653463364e-03</internalNodes>
          <leafValues>
            -5.7544893026351929e-01 8.0883556604385376e-01</leafValues></_>
        <_>
          <internalNodes>
            0 -1 2 -9.9943522363901138e-03</internalNodes>
          <leafValues>
            5.9493154287338257e-01 -8.7233972549438477e-01</leafValues></_>
        <_>
          <internalNodes>
            0 -1 9 -1.4485312625765800e-02</internalNodes>
          <leafValues>
            5.2101337909698486e-01 -7.7846807241439819e-01</leafValues></_>
        <_>
          <internalNodes>
            0 -1 11 -2.4214714765548706e-02</internalNodes>
          <leafValues>
            9.9804985523223877e-01 -5.2543962001800537e-01</leafValues></_>
        <_>
          <internalNodes>
            0 -1 16 -5.7962770370068029e-05</internalNodes>
          <leafValues>
            -1. 5.4949861764907837e-01</leafValues></_></weakClassifiers></_>
    <!-- stage 2 -->
    <_>
      <maxWeakCount>6</maxWeakCount>
      <stageThreshold>-3.3784404397010803e-02</stageThreshold>
      <weakClassifiers>
        <_>
          <internalNodes>
            0 -1 17 3.5199871490476653e-05</internalNodes>
          <leafValues>
            5.6521737575531006e-01 -9.2612135410308838e-01</leafValues></_>
        <_>
          <internalNodes>
            0 -1 13 5.0725964829325676e-03</internalNodes>
          <leafValues>
            -6.3004708290100098e-01 8.3590853214263916e-01</leafValues></_>
        <_>
          <internalNodes>
            0 -1 12 -6.4343311823904514e-03</internalNodes>
          <leafValues>
            9.4299006462097168e-01 -4.4345101714134216e-01</leafValues></_>
        <_>
          <internalNodes>
            0 -1 6 -2.4499081075191498e-02</internalNodes>
          <leafValues>
            9.4656622409820557e-01 -4.0369057655334473e-01</leafValues></_>
        <_>
          <internalNodes>
            0 -1 3 -6.3682942709419876e-05</internalNodes>
          <leafValues>
            -9.2849570512771606e-01 5.0779670476913452e-01</leafValues></_>
        <_>
          <internalNodes>
            0 -1 3 3.6970988730899990e-05</internalNodes>
          <leafValues>
            5.1147216558456421e-01 -1.</leafValues></_></weakClassifiers></_></stages>
  <features>
    <_>
      <rects>
        <_>
          0 0 20 20 -1.</_>
        <_>
          5 0 10 20 2.</_></rects>
      <tilted>0</tilted></_>
    <_>
      <rects>
        <_>
          0 0 20 6 -1.</_>
        <_>
          0 3 20 3 2.</_></rects>
      <tilted>0</tilted></_>
    <_>
      <rects>
        <_>
          0 14 6 6 -1.</_>
        <_>
          0 17 6 3 2.</_></rects>
      <tilted>0</tilted></_>
    <_>
      <rects>
        <_>
          0 17 1 2 -1.</_>
        <_>
          0 18 1 1 2.</_></rects>
      <tilted>0</tilted></_>
    <_>
      <rects>
        <_>
          1 8 14 2 -1.</_>
        <_>
          1 8 7 1 2.</_>
        <_>
          8 9 7 1 2.</_></rects>
      <tilted>0</tilted></_>
    <_>
      <rects>
        <_>
          2 4 16 12 -1.</_>
        <_>
          6 4 8 12 2.</_></rects>
      <tilted>0</tilted></_>
    <_>
      <rects>
        <_>
          4 7 3 3 -1.</_>
        <_>
          5 8 1 1 9.</_></rects>
      <tilted>0</tilted></_>
    <_>
      <rects>
        <_>
          5 10 1 3 -1.</_>
        <_>
          5 11 1 1 3.</_></rects>
      <tilted>0</tilted></_>
    <_>
      <rects>
        <_>
          7 6 3 1 -1.</_>
        <_>
          8 6 1 1 3.</_></rects>
      <tilted>0</tilted></_>
    <_>
      <rects>
        <_>
          7 9 6 3 -1.</_>
        <_>
          9 10 2 1 9.</_></rects>
      <tilted>0</tilted></_>
    <_>
      <rects>
        <_>
          7 14 3 1 -1.</_>
        <_>
          8 14 1 1 3.</_></rects>
      <tilted>0</tilted></_>
    <_>
      <rects>
        <_>
          9 5 3 3 -1.</_>
        <_>
          10 5 1 3 3.</_></rects>
      <tilted>0</tilted></_>
    <_>
      <rects>
        <_>
          9 14 3 1 -1.</_>
        <_>
          10 14 1 1 3.</_></rects>
      <tilted>0</tilted></_>
    <_>
      <rects>
        <_>
          10 5 3 1 -1.</_>
        <_>
          11 5 1 1 3.</_></rects>
      <tilted>0</tilted></_>
    <_>
      <rects>
        <_>
          10 13 3 1 -1.</_>
        <_>
          11 13 1 1 3.</_></rects>
      <tilted>0</tilted></_>
    <_>
      <rects>
        <_>
          12 7 3 3 -1.</_>
        <_>
          13 8 1 1 9.</_></rects>
      <tilted>0</tilted></_>
    <_>
      <rects>
        <_>
          19 0 1 4 -1.</_>
        <_>
          19 2 1 2 2.</_></rects>
      <tilted>0</tilted></_>
    <_>
      <rects>
        <_>
          19 1 1 2 -1.</_>
        <_>
          19 2 1 1 2.</_></rects>
      <tilted>0</tilted></_></features></cascade>
</opencv_storage>
