<?xml version="1.0"?>
<opencv_storage>
<cascade>
  <stageType>BOOST</stageType>
  <featureType>HAAR</featureType>
  <height>20</height>
  <width>20</width>
  <stageParams>
    <boostType>GAB</boostType>
    <minHitRate>9.9900001287460327e-01</minHitRate>
    <maxFalseAlarm>5.0000000745058060e-02</maxFalseAlarm>
    <weightTrimRate>9.4999999999999996e-01</weightTrimRate>
    <maxDepth>1</maxDepth>
    <maxWeakCount>100</maxWeakCount></stageParams>
  <featureParams>
    <maxCatCount>0</maxCatCount>
    <featSize>1</featSize>
    <mode>ALL</mode></featureParams>
  <stageNum>3</stageNum>
  <stages>
    <!-- stage 0 -->
    <_>
      <maxWeakCount>8</maxWeakCount>
      <stageThreshold>-8.7903207540512085e-01</stageThreshold>
      <weakClassifiers>
        <_>
          <internalNodes>
            0 -1 15 1.4179544523358345e-02</internalNodes>
          <leafValues>
            -6.6755557060241699e-01 8.5828572511672974e-01</leafValues></_>
        <_>
          <internalNodes>
            0 -1 9 3.7627792917191982e-03</internalNodes>
          <leafValues>
            -5.9852838516235352e-01 9.4921988248825073e-01</leafValues></_>
        <_>
          <internalNodes>
            0 -1 2 1.6270767897367477e-02</internalNodes>
          <leafValues>
            -9.3137407302856445e-01 5.9616416692733765e-01</leafValues></_>
        <_>
          <internalNodes>
            0 -1 11 -1.9285261631011963e-02</internalNodes>
          <leafValues>
            7.0916390419006348e-01 -6.7158854007720947e-01</leafValues></_>
        <_>
          <internalNodes>
            0 -1 17 -5.9693777002394199e-03</internalNodes>
          <leafValues>
            9.8197805881500244e-01 -4.8728415369987488e-01</leafValues></_>
        <_>
          <internalNodes>
            0 -1 13 4.1462867520749569e-03</internalNodes>
          <leafValues>
            -4.7966277599334717e-01 9.2625486850738525e-01</leafValues></_>
        <_>
          <internalNodes>
            0 -1 0 1.8183609470725060e-02</internalNodes>
          <leafValues>
            -9.1891837120056152e-01 5.8711743354797363e-01</leafValues></_>
        <_>
          <internalNodes>
            0 -1 6 -2.5773324072360992e-02</internalNodes>
          <leafValues>
            9.8909151554107666e-01 -4.9152263998985291e-01</leafValues></_></weakClassifiers></_>
    <!-- stage 1 -->
    <_>
      <maxWeakCount>7</maxWeakCount>
      <stageThreshold>1.5138197690248489e-02</stageThreshold>
      <weakClassifiers>
        <_>
          <internalNodes>
            0 -1 10 4.8267878592014313e-03</internalNodes>
          <leafValues>
            -5.8361202478408813e-01 8.6815917491912842e-01</leafValues></_>
        <_>
          <internalNodes>
            0 -1 7 1.9716909155249596e-02</internalNodes>
          <leafValues>
            -5.0860226154327393e-01 9.2594778537750244e-01</leafValues></_>
        <_>
          <internalNodes>
            0 -1 1 1.6014479100704193e-02</internalNodes>
          <leafValues>
            -9.5303404331207275e-01 5.2488476037979126e-01</leafValues></_>
        <_>
          <internalNodes>
            0 -1 19 -6.3267564401030540e-03</internalNodes>
          <leafValues>
            9.1863566637039185e-01 -4.8083320260047913e-01</leafValues></_>
        <_>
          <internalNodes>
            0 -1 20 -9.2947613447904587e-03</internalNodes>
          <leafValues>
            9.9408495426177979e-01 -3.7928265333175659e-01</leafValues></_>
        <_>
          <internalNodes>
            0 -1 12 -2.0109273493289948e-02</internalNodes>
          <leafValues>
            9.5269274711608887e-01 -4.0213435888290405e-01</leafValues></_>
        <_>
          <internalNodes>
            0 -1 3 4.0656670928001404e-02</internalNodes>
          <leafValues>
            4.9749794602394104e-01 -9.4686162471771240e-01</leafValues></_></weakClassifiers></_>
    <!-- stage 2 -->
    <_>
      <maxWeakCount>8</maxWeakCount>
      <stageThreshold>-9.8687773942947388e-01</stageThreshold>
      <weakClassifiers>
        <_>
          <internalNodes>
            0 -1 18 4.4087017886340618e-03</internalNodes>
          <leafValues>
            -5.5647838115692139e-01 8.4170854091644287e-01</leafValues></_>
        <_>
          <internalNodes>
            0 -1 8 -5.7540447451174259e-03</internalNodes>
          <leafValues>
            9.6508079767227173e-01 -3.8971862196922302e-01</leafValues></_>
        <_>
          <internalNodes>
            0 -1 4 -6.5417620353400707e-03</internalNodes>
          <leafValues>
            9.4441646337509155e-01 -3.7039783596992493e-01</leafValues></_>
        <_>
          <internalNodes>
            0 -1 16 -5.9165491256862879e-04</internalNodes>
          <leafValues>
            -9.6144026517868042e-01 4.9344027042388916e-01</leafValues></_>
        <_>
          <internalNodes>
            0 -1 21 -3.7962636270094663e-05</internalNodes>
          <leafValues>
            -1. 3.7511903047561646e-01</leafValues></_>
        <_>
          <internalNodes>
            0 -1 21 3.5184297303203493e-05</internalNodes>
          <leafValues>
            4.1809546947479248e-01 -9.0934646129608154e-01</leafValues></_>
        <_>
          <internalNodes>
            0 -1 5 1.3418692164123058e-02</internalNodes>
          <leafValues>
            -5.4853576421737671e-01 9.0473359823226929e-01</leafValues></_>
        <_>
          <internalNodes>
            0 -1 14 5.4311873391270638e-03</internalNodes>
          <leafValues>
            -5.3422927856445312e-01 9.8793500661849976e-01</leafValues></_></weakClassifiers></_></stages>
  <features>
    <_>
      <rects>
        <_>
          0 0 20 5 -1.</_>
        <_>
          5 0 10 5 2.</_></rects>
      <tilted>0</tilted></_>
    <_>
      <rects>
        <_>
          0 0 20 6 -1.</_>
        <_>
          0 3 20 3 2.</_></rects>
      <tilted>0</tilted></_>
    <_>
      <rects>
        <_>
          0 15 20 5 -1.</_>
        <_>
          5 15 10 5 2.</_></rects>
      <tilted>0</tilted></_>
    <_>
      <rects>
        <_>
          2 3 16 7 -1.</_>
        <_>
          6 3 8 7 2.</_></rects>
      <tilted>0</tilted></_>
    <_>
      <rects>
        <_>
          5 7 1 3 -1.</_>
        <_>
          5 8 1 1 3.</_></rects>
      <tilted>0</tilted></_>
    <_>
      <rects>
        <_>
          5 9 2 3 -1.</_>
        <_>
          5 10 2 1 3.</_></rects>
      <tilted>0</tilted></_>
    <_>
      <rects>
        <_>
          5 10 3 3 -1.</_>
        <_>
          6 11 1 1 9.</_></rects>
      <tilted>0</tilted></_>
    <_>
      <rects>
        <_>
          5 11 3 3 -1.</_>
        <_>
          6 12 1 1 9.</_></rects>
      <tilted>0</tilted></_>
    <_>
      <rects>
        <_>
          6 6 2 2 -1.</_>
        <_>
          6 6 1 1 2.</_>
        <_>
          7 7 1 1 2.</_></rects>
      <tilted>0</tilted></_>
    <_>
      <rects>
        <_>
          6 8 3 1 -1.</_>
        <_>
          7 8 1 1 3.</_></rects>
      <tilted>0</tilted></_>
    <_>
      <rects>
        <_>
          7 6 3 1 -1.</_>
        <_>
          8 6 1 1 3.</_></rects>
      <tilted>0</tilted></_>
    <_>
      <rects>
        <_>
          7 9 6 3 -1.</_>
        <_>
          9 10 2 1 9.</_></rects>
      <tilted>0</tilted></_>
    <_>
      <rects>
        <_>
          7 10 10 2 -1.</_>
        <_>
          7 10 5 1 2.</_>
        <_>
          12 11 5 1 2.</_></rects>
      <tilted>0</tilted></_>
    <_>
      <rects>
        <_>
          7 13 3 1 -1.</_>
        <_>
          8 13 1 1 3.</_></rects>
      <tilted>0</tilted></_>
    <_>
      <rects>
        <_>
          8 7 2 1 -1.</_>
        <_>
          9 7 1 1 2.</_></rects>
      <tilted>0</tilted></_>
    <_>
      <rects>
        <_>
          9 7 3 3 -1.</_>
        <_>
          10 8 1 1 9.</_></rects>
      <tilted>0</tilted></_>
    <_>
      <rects>
        <_>
          9 8 11 12 -1.</_>
        <_>
          9 11 11 6 2.</_></rects>
      <tilted>0</tilted></_>
    <_>
      <rects>
        <_>
          9 13 3 1 -1.</_>
        <_>
          10 13 1 1 3.</_></rects>
      <tilted>0</tilted></_>
    <_>
      <rects>
        <_>
          10 5 3 1 -1.</_>
        <_>
          11 5 1 1 3.</_></rects>
      <tilted>0</tilted></_>
    <_>
      <rects>
        <_>
          11 13 3 1 -1.</_>
        <_>
          12 13 1 1 3.</_></rects>
      <tilted>0</tilted></_>
    <_>
      <rects>
        <_>
          13 9 1 3 -1.</_>
        <_>
          13 10 1 1 3.</_></rects>
      <tilted>0</tilted></_>
    <_>
      <rects>
        <_>
          18 0 2 2 -1.</_>
        <_>
          18 1 2 1 2.</_></rects>
      <tilted>0</tilted></_></features></cascade>
</opencv_storage>
