<?xml version="1.0"?>
<opencv_storage>
<cascade>
  <stageType>BOOST</stageType>
  <featureType>HAAR</featureType>
  <height>20</height>
  <width>20</width>
  <stageParams>
    <boostType>GAB</boostType>
    <minHitRate>9.9900001287460327e-01</minHitRate>
    <maxFalseAlarm>5.0000000745058060e-02</maxFalseAlarm>
    <weightTrimRate>9.4999999999999996e-01</weightTrimRate>
    <maxDepth>1</maxDepth>
    <maxWeakCount>100</maxWeakCount></stageParams>
  <featureParams>
    <maxCatCount>0</maxCatCount>
    <featSize>1</featSize>
    <mode>ALL</mode></featureParams>
  <stageNum>3</stageNum>
  <stages>
    <!-- stage 0 -->
    <_>
      <maxWeakCount>8</maxWeakCount>
      <stageThreshold>-5.2692759037017822e-01</stageThreshold>
      <weakClassifiers>
        <_>
          <internalNodes>
            0 -1 15 1.4115151017904282e-02</internalNodes>
          <leafValues>
            -6.6312056779861450e-01 8.5779815912246704e-01</leafValues></_>
        <_>
          <internalNodes>
            0 -1 8 4.3132128193974495e-03</internalNodes>
          <leafValues>
            -5.7170039415359497e-01 9.1375786066055298e-01</leafValues></_>
        <_>
          <internalNodes>
            0 -1 9 -1.1426867917180061e-02</internalNodes>
          <leafValues>
            6.7633152008056641e-01 -7.7482062578201294e-01</leafValues></_>
        <_>
          <internalNodes>
            0 -1 21 -1.6595754772424698e-02</internalNodes>
          <leafValues>
            6.4514273405075073e-01 -7.7111732959747314e-01</leafValues></_>
        <_>
          <internalNodes>
            0 -1 0 1.8868999555706978e-02</internalNodes>
          <leafValues>
            -7.5064283609390259e-01 5.9792041778564453e-01</leafValues></_>
        <_>
          <internalNodes>
            0 -1 20 -2.1792925894260406e-02</internalNodes>
          <leafValues>
            9.5120596885681152e-01 -4.3675062060356140e-01</leafValues></_>
        <_>
          <internalNodes>
            0 -1 11 -1.1480292305350304e-02</internalNodes>
          <leafValues>
            9.9513036012649536e-01 -3.7483280897140503e-01</leafValues></_>
        <_>
          <internalNodes>
            0 -1 14 -1.5283901244401932e-02</internalNodes>
          <leafValues>
            9.7694885730743408e-01 -3.5400232672691345e-01</leafValues></_></weakClassifiers></_>
    <!-- stage 1 -->
    <_>
      <maxWeakCount>7</maxWeakCount>
      <stageThreshold>-2.0595735311508179e-01</stageThreshold>
      <weakClassifiers>
        <_>
          <internalNodes>
            0 -1 17 4.3866974301636219e-03</internalNodes>
          <leafValues>
            -5.5409836769104004e-01 8.6666667461395264e-01</leafValues></_>
        <_>
          <internalNodes>
            0 -1 13 1.2987682595849037e-02</internalNodes>
          <leafValues>
            -5.7452291250228882e-01 8.1193667650222778e-01</leafValues></_>
        <_>
          <internalNodes>
            0 -1 1 -7.6987403444945812e-03</internalNodes>
          <leafValues>
            4.9345940351486206e-01 -9.4855201244354248e-01</leafValues></_>
        <_>
          <internalNodes>
            0 -1 3 -2.1793197840452194e-02</internalNodes>
          <leafValues>
            9.6556711196899414e-01 -4.5817658305168152e-01</leafValues></_>
        <_>
          <internalNodes>
            0 -1 18 -2.6316065341234207e-02</internalNodes>
          <leafValues>
            9.8116600513458252e-01 -4.9529647827148438e-01</leafValues></_>
        <_>
          <internalNodes>
            0 -1 22 -5.2005179895786569e-05</internalNodes>
          <leafValues>
            -9.7086656093597412e-01 5.2659863233566284e-01</leafValues></_>
        <_>
          <internalNodes>
            0 -1 7 -6.5327188931405544e-03</internalNodes>
          <leafValues>
            9.4160985946655273e-01 -5.4368335008621216e-01</leafValues></_></weakClassifiers></_>
    <!-- stage 2 -->
    <_>
      <maxWeakCount>9</maxWeakCount>
      <stageThreshold>-3.4337714314460754e-01</stageThreshold>
      <weakClassifiers>
        <_>
          <internalNodes>
            0 -1 4 -6.3539184629917145e-03</internalNodes>
          <leafValues>
            9.3974173069000244e-01 -5.0268608331680298e-01</leafValues></_>
        <_>
          <internalNodes>
            0 -1 10 -2.5091897696256638e-03</internalNodes>
          <leafValues>
            5.3584551811218262e-01 -9.6697014570236206e-01</leafValues></_>
        <_>
          <internalNodes>
            0 -1 6 -5.9380337595939636e-02</internalNodes>
          <leafValues>
            9.7918081283569336e-01 -4.7837910056114197e-01</leafValues></_>
        <_>
          <internalNodes>
            0 -1 19 -6.4822784624993801e-03</internalNodes>
          <leafValues>
            9.3938738107681274e-01 -5.2402031421661377e-01</leafValues></_>
        <_>
          <internalNodes>
            0 -1 5 3.5145223140716553e-02</internalNodes>
          <leafValues>
            5.6080532073974609e-01 -8.9654773473739624e-01</leafValues></_>
        <_>
          <internalNodes>
            0 -1 16 7.9099880531430244e-03</internalNodes>
          <leafValues>
            -4.7509250044822693e-01 9.6710485219955444e-01</leafValues></_>
        <_>
          <internalNodes>
            0 -1 12 -2.0039808005094528e-02</internalNodes>
          <leafValues>
            9.6152526140213013e-01 -4.7720450162887573e-01</leafValues></_>
        <_>
          <internalNodes>
            0 -1 2 -3.5328135709278286e-05</internalNodes>
          <leafValues>
            -1. 5.1513791084289551e-01</leafValues></_>
        <_>
          <internalNodes>
            0 -1 2 3.8592141208937392e-05</internalNodes>
          <leafValues>
            5.6283497810363770e-01 -1.</leafValues></_></weakClassifiers></_></stages>
  <features>
    <_>
      <rects>
        <_>
          0 1 4 18 -1.</_>
        <_>
          2 1 2 18 2.</_></rects>
      <tilted>0</tilted></_>
    <_>
      <rects>
        <_>
          0 14 7 6 -1.</_>
        <_>
          0 17 7 3 2.</_></rects>
      <tilted>0</tilted></_>
    <_>
      <rects>
        <_>
          0 19 2 1 -1.</_>
        <_>
          1 19 1 1 2.</_></rects>
      <tilted>0</tilted></_>
    <_>
      <rects>
        <_>
          4 7 3 3 -1.</_>
        <_>
          5 8 1 1 9.</_></rects>
      <tilted>0</tilted></_>
    <_>
      <rects>
        <_>
          5 10 1 3 -1.</_>
        <_>
          5 11 1 1 3.</_></rects>
      <tilted>0</tilted></_>
    <_>
      <rects>
        <_>
          6 3 12 4 -1.</_>
        <_>
          9 6 6 4 2.</_></rects>
      <tilted>1</tilted></_>
    <_>
      <rects>
        <_>
          6 3 12 3 -1.</_>
        <_>
          5 4 12 1 3.</_></rects>
      <tilted>1</tilted></_>
    <_>
      <rects>
        <_>
          6 7 1 3 -1.</_>
        <_>
          6 8 1 1 3.</_></rects>
      <tilted>0</tilted></_>
    <_>
      <rects>
        <_>
          7 6 3 1 -1.</_>
        <_>
          8 6 1 1 3.</_></rects>
      <tilted>0</tilted></_>
    <_>
      <rects>
        <_>
          7 9 6 3 -1.</_>
        <_>
          9 10 2 1 9.</_></rects>
      <tilted>0</tilted></_>
    <_>
      <rects>
        <_>
          8 0 12 7 -1.</_>
        <_>
          14 0 6 7 2.</_></rects>
      <tilted>0</tilted></_>
    <_>
      <rects>
        <_>
          8 6 3 2 -1.</_>
        <_>
          9 6 1 2 3.</_></rects>
      <tilted>0</tilted></_>
    <_>
      <rects>
        <_>
          8 6 2 12 -1.</_>
        <_>
          8 6 1 6 2.</_>
        <_>
          9 12 1 6 2.</_></rects>
      <tilted>0</tilted></_>
    <_>
      <rects>
        <_>
          8 10 3 3 -1.</_>
        <_>
          9 11 1 1 9.</_></rects>
      <tilted>0</tilted></_>
    <_>
      <rects>
        <_>
          8 12 3 6 -1.</_>
        <_>
          9 12 1 6 3.</_></rects>
      <tilted>0</tilted></_>
    <_>
      <rects>
        <_>
          9 7 3 3 -1.</_>
        <_>
          10 8 1 1 9.</_></rects>
      <tilted>0</tilted></_>
    <_>
      <rects>
        <_>
          9 11 3 1 -1.</_>
        <_>
          10 12 1 1 3.</_></rects>
      <tilted>1</tilted></_>
    <_>
      <rects>
        <_>
          10 13 3 1 -1.</_>
        <_>
          11 13 1 1 3.</_></rects>
      <tilted>0</tilted></_>
    <_>
      <rects>
        <_>
          12 9 3 3 -1.</_>
        <_>
          13 10 1 1 9.</_></rects>
      <tilted>0</tilted></_>
    <_>
      <rects>
        <_>
          13 10 1 3 -1.</_>
        <_>
          13 11 1 1 3.</_></rects>
      <tilted>0</tilted></_>
    <_>
      <rects>
        <_>
          13 10 3 3 -1.</_>
        <_>
          14 11 1 1 9.</_></rects>
      <tilted>0</tilted></_>
    <_>
      <rects>
        <_>
          16 0 4 20 -1.</_>
        <_>
          18 0 2 20 2.</_></rects>
      <tilted>0</tilted></_>
    <_>
      <rects>
        <_>
          19 0 1 8 -1.</_>
        <_>
          19 4 1 4 2.</_></rects>
      <tilted>0</tilted></_></features></cascade>
</opencv_storage>
