<?xml version="1.0"?>
<opencv_storage>
<stage1>
  <maxWeakCount>7</maxWeakCount>
  <stageThreshold>1.5138197690248489e-02</stageThreshold>
  <weakClassifiers>
    <_>
      <internalNodes>
        0 -1 68325 4.8267878592014313e-03</internalNodes>
      <leafValues>
        -5.8361202478408813e-01 8.6815917491912842e-01</leafValues></_>
    <_>
      <internalNodes>
        0 -1 54129 1.9716909155249596e-02</internalNodes>
      <leafValues>
        -5.0860226154327393e-01 9.2594778537750244e-01</leafValues></_>
    <_>
      <internalNodes>
        0 -1 961 1.6014479100704193e-02</internalNodes>
      <leafValues>
        -9.5303404331207275e-01 5.2488476037979126e-01</leafValues></_>
    <_>
      <internalNodes>
        0 -1 99280 -6.3267564401030540e-03</internalNodes>
      <leafValues>
        9.1863566637039185e-01 -4.8083320260047913e-01</leafValues></_>
    <_>
      <internalNodes>
        0 -1 109101 -9.2947613447904587e-03</internalNodes>
      <leafValues>
        9.9408495426177979e-01 -3.7928265333175659e-01</leafValues></_>
    <_>
      <internalNodes>
        0 -1 70507 -2.0109273493289948e-02</internalNodes>
      <leafValues>
        9.5269274711608887e-01 -4.0213435888290405e-01</leafValues></_>
    <_>
      <internalNodes>
        0 -1 22336 4.0656670928001404e-02</internalNodes>
      <leafValues>
        4.9749794602394104e-01 -9.4686162471771240e-01</leafValues></_></weakClassifiers></stage1>
</opencv_storage>
