<?xml version="1.0"?>
<opencv_storage>
<stage2>
  <maxWeakCount>6</maxWeakCount>
  <stageThreshold>-3.3784404397010803e-02</stageThreshold>
  <weakClassifiers>
    <_>
      <internalNodes>
        0 -1 124844 3.5199871490476653e-05</internalNodes>
      <leafValues>
        5.6521737575531006e-01 -9.2612135410308838e-01</leafValues></_>
    <_>
      <internalNodes>
        0 -1 90021 5.0725964829325676e-03</internalNodes>
      <leafValues>
        -6.3004708290100098e-01 8.3590853214263916e-01</leafValues></_>
    <_>
      <internalNodes>
        0 -1 86430 -6.4343311823904514e-03</internalNodes>
      <leafValues>
        9.4299006462097168e-01 -4.4345101714134216e-01</leafValues></_>
    <_>
      <internalNodes>
        0 -1 43354 -2.4499081075191498e-02</internalNodes>
      <leafValues>
        9.4656622409820557e-01 -4.0369057655334473e-01</leafValues></_>
    <_>
      <internalNodes>
        0 -1 9737 -6.3682942709419876e-05</internalNodes>
      <leafValues>
        -9.2849570512771606e-01 5.0779670476913452e-01</leafValues></_>
    <_>
      <internalNodes>
        0 -1 9737 3.6970988730899990e-05</internalNodes>
      <leafValues>
        5.1147216558456421e-01 -1.</leafValues></_></weakClassifiers></stage2>
</opencv_storage>
