<?xml version="1.0"?>
<opencv_storage>
<stage1>
  <maxWeakCount>8</maxWeakCount>
  <stageThreshold>-4.8936426639556885e-01</stageThreshold>
  <weakClassifiers>
    <_>
      <internalNodes>
        0 -1 23122 3.8235217332839966e-02</internalNodes>
      <leafValues>
        5.6050956249237061e-01 -9.4623655080795288e-01</leafValues></_>
    <_>
      <internalNodes>
        0 -1 53715 -5.7233157567679882e-03</internalNodes>
      <leafValues>
        9.2347538471221924e-01 -5.9352219104766846e-01</leafValues></_>
    <_>
      <internalNodes>
        0 -1 961 2.5339920073747635e-02</internalNodes>
      <leafValues>
        -9.5360267162322998e-01 4.8583948612213135e-01</leafValues></_>
    <_>
      <internalNodes>
        0 -1 93031 3.7481244653463364e-03</internalNodes>
      <leafValues>
        -5.7544893026351929e-01 8.0883556604385376e-01</leafValues></_>
    <_>
      <internalNodes>
        0 -1 9206 -9.9943522363901138e-03</internalNodes>
      <leafValues>
        5.9493154287338257e-01 -8.7233972549438477e-01</leafValues></_>
    <_>
      <internalNodes>
        0 -1 69940 -1.4485312625765800e-02</internalNodes>
      <leafValues>
        5.2101337909698486e-01 -7.7846807241439819e-01</leafValues></_>
    <_>
      <internalNodes>
        0 -1 83184 -2.4214714765548706e-02</internalNodes>
      <leafValues>
        9.9804985523223877e-01 -5.2543962001800537e-01</leafValues></_>
    <_>
      <internalNodes>
        0 -1 124810 -5.7962770370068029e-05</internalNodes>
      <leafValues>
        -1. 5.4949861764907837e-01</leafValues></_></weakClassifiers></stage1>
</opencv_storage>
