<?xml version="1.0"?>
<opencv_storage>
<stage2>
  <maxWeakCount>9</maxWeakCount>
  <stageThreshold>-3.4337714314460754e-01</stageThreshold>
  <weakClassifiers>
    <_>
      <internalNodes>
        0 -1 53715 -6.3539184629917145e-03</internalNodes>
      <leafValues>
        9.3974173069000244e-01 -5.0268608331680298e-01</leafValues></_>
    <_>
      <internalNodes>
        0 -1 72689 -2.5091897696256638e-03</internalNodes>
      <leafValues>
        5.3584551811218262e-01 -9.6697014570236206e-01</leafValues></_>
    <_>
      <internalNodes>
        0 -1 58801 -5.9380337595939636e-02</internalNodes>
      <leafValues>
        9.7918081283569336e-01 -4.7837910056114197e-01</leafValues></_>
    <_>
      <internalNodes>
        0 -1 109346 -6.4822784624993801e-03</internalNodes>
      <leafValues>
        9.3938738107681274e-01 -5.2402031421661377e-01</leafValues></_>
    <_>
      <internalNodes>
        0 -1 58411 3.5145223140716553e-02</internalNodes>
      <leafValues>
        5.6080532073974609e-01 -8.9654773473739624e-01</leafValues></_>
    <_>
      <internalNodes>
        0 -1 85727 7.9099880531430244e-03</internalNodes>
      <leafValues>
        -4.7509250044822693e-01 9.6710485219955444e-01</leafValues></_>
    <_>
      <internalNodes>
        0 -1 76353 -2.0039808005094528e-02</internalNodes>
      <leafValues>
        9.6152526140213013e-01 -4.7720450162887573e-01</leafValues></_>
    <_>
      <internalNodes>
        0 -1 9927 -3.5328135709278286e-05</internalNodes>
      <leafValues>
        -1. 5.1513791084289551e-01</leafValues></_>
    <_>
      <internalNodes>
        0 -1 9927 3.8592141208937392e-05</internalNodes>
      <leafValues>
        5.6283497810363770e-01 -1.</leafValues></_></weakClassifiers></stage2>
</opencv_storage>
