<?xml version="1.0"?>
<opencv_storage>
<stage0>
  <maxWeakCount>8</maxWeakCount>
  <stageThreshold>-8.7903207540512085e-01</stageThreshold>
  <weakClassifiers>
    <_>
      <internalNodes>
        0 -1 84176 1.4179544523358345e-02</internalNodes>
      <leafValues>
        -6.6755557060241699e-01 8.5828572511672974e-01</leafValues></_>
    <_>
      <internalNodes>
        0 -1 61276 3.7627792917191982e-03</internalNodes>
      <leafValues>
        -5.9852838516235352e-01 9.4921988248825073e-01</leafValues></_>
    <_>
      <internalNodes>
        0 -1 9444 1.6270767897367477e-02</internalNodes>
      <leafValues>
        -9.3137407302856445e-01 5.9616416692733765e-01</leafValues></_>
    <_>
      <internalNodes>
        0 -1 69940 -1.9285261631011963e-02</internalNodes>
      <leafValues>
        7.0916390419006348e-01 -6.7158854007720947e-01</leafValues></_>
    <_>
      <internalNodes>
        0 -1 86239 -5.9693777002394199e-03</internalNodes>
      <leafValues>
        9.8197805881500244e-01 -4.8728415369987488e-01</leafValues></_>
    <_>
      <internalNodes>
        0 -1 71252 4.1462867520749569e-03</internalNodes>
      <leafValues>
        -4.7966277599334717e-01 9.2625486850738525e-01</leafValues></_>
    <_>
      <internalNodes>
        0 -1 424 1.8183609470725060e-02</internalNodes>
      <leafValues>
        -9.1891837120056152e-01 5.8711743354797363e-01</leafValues></_>
    <_>
      <internalNodes>
        0 -1 53719 -2.5773324072360992e-02</internalNodes>
      <leafValues>
        9.8909151554107666e-01 -4.9152263998985291e-01</leafValues></_></weakClassifiers></stage0>
</opencv_storage>
